<?xml version="1.0"?>
<opencv_storage>
<cascade>
  <stageType>BOOST</stageType>
  <featureType>HAAR</featureType>
  <height>34</height>
  <width>34</width>
  <stageParams>
    <boostType>GAB</boostType>
    <minHitRate>9.9500000476837158e-01</minHitRate>
    <maxFalseAlarm>5.0000000000000000e-01</maxFalseAlarm>
    <weightTrimRate>9.4999998807907104e-01</weightTrimRate>
    <maxDepth>1</maxDepth>
    <maxWeakCount>100</maxWeakCount></stageParams>
  <featureParams>
    <maxCatCount>0</maxCatCount>
    <featSize>1</featSize>
    <mode>BASIC</mode></featureParams>
  <stageNum>3</stageNum>
  <stages>
    <!-- stage 0 -->
    <_>
      <maxWeakCount>8</maxWeakCount>
      <stageThreshold>-1.3719328641891479e+00</stageThreshold>
      <weakClassifiers>
        <_>
          <internalNodes>
            0 -1 14 1.0311791300773621e-01</internalNodes>
          <leafValues>
            -7.1339756250381470e-01 2.8550511598587036e-01</leafValues></_>
        <_>
          <internalNodes>
            0 -1 9 2.5313976220786572e-04</internalNodes>
          <leafValues>
            1.3389104604721069e-01 -8.8812315464019775e-01</leafValues></_>
        <_>
          <internalNodes>
            0 -1 10 -5.3255620878189802e-04</internalNodes>
          <leafValues>
            -8.4107881784439087e-01 1.9877749681472778e-01</leafValues></_>
        <_>
          <internalNodes>
            0 -1 8 8.6250237654894590e-04</internalNodes>
          <leafValues>
            2.2986796498298645e-01 -7.5721365213394165e-01</leafValues></_>
        <_>
          <internalNodes>
            0 -1 7 7.3378474917262793e-04</internalNodes>
          <leafValues>
            2.3024739325046539e-01 -8.4388846158981323e-01</leafValues></_>
        <_>
          <internalNodes>
            0 -1 5 5.6608172599226236e-04</internalNodes>
          <leafValues>
            2.0213529467582703e-01 -7.8289580345153809e-01</leafValues></_>
        <_>
          <internalNodes>
            0 -1 22 2.5106029352173209e-04</internalNodes>
          <leafValues>
            2.0869679749011993e-01 -8.3506667613983154e-01</leafValues></_>
        <_>
          <internalNodes>
            0 -1 21 5.1229743985459208e-04</internalNodes>
          <leafValues>
            2.4187652766704559e-01 -7.9434794187545776e-01</leafValues></_></weakClassifiers></_>
    <!-- stage 1 -->
    <_>
      <maxWeakCount>8</maxWeakCount>
      <stageThreshold>-1.5481116771697998e+00</stageThreshold>
      <weakClassifiers>
        <_>
          <internalNodes>
            0 -1 4 -6.1162875499576330e-04</internalNodes>
          <leafValues>
            -9.0706807374954224e-01 -3.0101180076599121e-01</leafValues></_>
        <_>
          <internalNodes>
            0 -1 20 1.8611727864481509e-04</internalNodes>
          <leafValues>
            1.0482588410377502e-01 -7.6857030391693115e-01</leafValues></_>
        <_>
          <internalNodes>
            0 -1 19 1.1257675942033529e-03</internalNodes>
          <leafValues>
            2.3643614351749420e-01 -8.1237137317657471e-01</leafValues></_>
        <_>
          <internalNodes>
            0 -1 11 -2.6729432283900678e-04</internalNodes>
          <leafValues>
            -7.5973212718963623e-01 1.4341764152050018e-01</leafValues></_>
        <_>
          <internalNodes>
            0 -1 0 9.9345936905592680e-04</internalNodes>
          <leafValues>
            2.0269779860973358e-01 -8.0829179286956787e-01</leafValues></_>
        <_>
          <internalNodes>
            0 -1 1 -3.6827422678470612e-02</internalNodes>
          <leafValues>
            3.9903154969215393e-01 -3.5658198595046997e-01</leafValues></_>
        <_>
          <internalNodes>
            0 -1 15 -8.7827368406578898e-04</internalNodes>
          <leafValues>
            -7.3741781711578369e-01 1.8960058689117432e-01</leafValues></_>
        <_>
          <internalNodes>
            0 -1 17 -3.4521811176091433e-04</internalNodes>
          <leafValues>
            -7.7042818069458008e-01 1.7051205039024353e-01</leafValues></_></weakClassifiers></_>
    <!-- stage 2 -->
    <_>
      <maxWeakCount>8</maxWeakCount>
      <stageThreshold>-1.5459206104278564e+00</stageThreshold>
      <weakClassifiers>
        <_>
          <internalNodes>
            0 -1 13 -5.1079340279102325e-02</internalNodes>
          <leafValues>
            1.2921348214149475e-01 -6.8757843971252441e-01</leafValues></_>
        <_>
          <internalNodes>
            0 -1 18 -7.7422754839062691e-04</internalNodes>
          <leafValues>
            -7.7501308917999268e-01 1.1595672369003296e-01</leafValues></_>
        <_>
          <internalNodes>
            0 -1 21 -3.8911687443032861e-04</internalNodes>
          <leafValues>
            -7.7833998203277588e-01 1.4567309617996216e-01</leafValues></_>
        <_>
          <internalNodes>
            0 -1 6 -7.4785662582144141e-04</internalNodes>
          <leafValues>
            -7.5502324104309082e-01 1.6504871845245361e-01</leafValues></_>
        <_>
          <internalNodes>
            0 -1 2 -3.2574050128459930e-02</internalNodes>
          <leafValues>
            5.0837749242782593e-01 -2.7237051725387573e-01</leafValues></_>
        <_>
          <internalNodes>
            0 -1 16 -5.5906467605382204e-04</internalNodes>
          <leafValues>
            -7.1966123580932617e-01 1.8476197123527527e-01</leafValues></_>
        <_>
          <internalNodes>
            0 -1 12 9.5254607498645782e-02</internalNodes>
          <leafValues>
            -2.6484537124633789e-01 4.4523423910140991e-01</leafValues></_>
        <_>
          <internalNodes>
            0 -1 3 -6.6285615321248770e-04</internalNodes>
          <leafValues>
            -8.2615727186203003e-01 1.5274658799171448e-01</leafValues></_></weakClassifiers></_></stages>
  <features>
    <_>
      <rects>
        <_>
          0 0 9 1 -1.</_>
        <_>
          3 0 3 1 3.</_></rects>
      <tilted>0</tilted></_>
    <_>
      <rects>
        <_>
          0 9 12 25 -1.</_>
        <_>
          6 9 6 25 2.</_></rects>
      <tilted>0</tilted></_>
    <_>
      <rects>
        <_>
          0 12 18 12 -1.</_>
        <_>
          6 12 6 12 3.</_></rects>
      <tilted>0</tilted></_>
    <_>
      <rects>
        <_>
          0 14 1 6 -1.</_>
        <_>
          0 16 1 2 3.</_></rects>
      <tilted>0</tilted></_>
    <_>
      <rects>
        <_>
          0 20 1 9 -1.</_>
        <_>
          0 23 1 3 3.</_></rects>
      <tilted>0</tilted></_>
    <_>
      <rects>
        <_>
          0 21 1 6 -1.</_>
        <_>
          0 23 1 2 3.</_></rects>
      <tilted>0</tilted></_>
    <_>
      <rects>
        <_>
          0 21 1 9 -1.</_>
        <_>
          0 24 1 3 3.</_></rects>
      <tilted>0</tilted></_>
    <_>
      <rects>
        <_>
          0 23 1 6 -1.</_>
        <_>
          0 25 1 2 3.</_></rects>
      <tilted>0</tilted></_>
    <_>
      <rects>
        <_>
          0 25 1 9 -1.</_>
        <_>
          0 28 1 3 3.</_></rects>
      <tilted>0</tilted></_>
    <_>
      <rects>
        <_>
          0 28 1 4 -1.</_>
        <_>
          0 30 1 2 2.</_></rects>
      <tilted>0</tilted></_>
    <_>
      <rects>
        <_>
          0 28 1 6 -1.</_>
        <_>
          0 30 1 2 3.</_></rects>
      <tilted>0</tilted></_>
    <_>
      <rects>
        <_>
          1 0 4 1 -1.</_>
        <_>
          3 0 2 1 2.</_></rects>
      <tilted>0</tilted></_>
    <_>
      <rects>
        <_>
          16 7 18 26 -1.</_>
        <_>
          25 7 9 26 2.</_></rects>
      <tilted>0</tilted></_>
    <_>
      <rects>
        <_>
          16 12 18 13 -1.</_>
        <_>
          22 12 6 13 3.</_></rects>
      <tilted>0</tilted></_>
    <_>
      <rects>
        <_>
          18 6 16 28 -1.</_>
        <_>
          26 6 8 28 2.</_></rects>
      <tilted>0</tilted></_>
    <_>
      <rects>
        <_>
          33 0 1 9 -1.</_>
        <_>
          33 3 1 3 3.</_></rects>
      <tilted>0</tilted></_>
    <_>
      <rects>
        <_>
          33 3 1 6 -1.</_>
        <_>
          33 5 1 2 3.</_></rects>
      <tilted>0</tilted></_>
    <_>
      <rects>
        <_>
          33 5 1 4 -1.</_>
        <_>
          33 7 1 2 2.</_></rects>
      <tilted>0</tilted></_>
    <_>
      <rects>
        <_>
          33 21 1 12 -1.</_>
        <_>
          33 25 1 4 3.</_></rects>
      <tilted>0</tilted></_>
    <_>
      <rects>
        <_>
          33 22 1 9 -1.</_>
        <_>
          33 25 1 3 3.</_></rects>
      <tilted>0</tilted></_>
    <_>
      <rects>
        <_>
          33 26 1 4 -1.</_>
        <_>
          33 28 1 2 2.</_></rects>
      <tilted>0</tilted></_>
    <_>
      <rects>
        <_>
          33 28 1 6 -1.</_>
        <_>
          33 30 1 2 3.</_></rects>
      <tilted>0</tilted></_>
    <_>
      <rects>
        <_>
          33 30 1 4 -1.</_>
        <_>
          33 32 1 2 2.</_></rects>
      <tilted>0</tilted></_></features></cascade>
</opencv_storage>
