<?xml version="1.0"?>
<opencv_storage>
<cascade>
  <stageType>BOOST</stageType>
  <featureType>HAAR</featureType>
  <height>34</height>
  <width>34</width>
  <stageParams>
    <boostType>GAB</boostType>
    <minHitRate>9.9500000476837158e-01</minHitRate>
    <maxFalseAlarm>5.0000000000000000e-01</maxFalseAlarm>
    <weightTrimRate>9.4999998807907104e-01</weightTrimRate>
    <maxDepth>1</maxDepth>
    <maxWeakCount>100</maxWeakCount></stageParams>
  <featureParams>
    <maxCatCount>0</maxCatCount>
    <featSize>1</featSize>
    <mode>BASIC</mode></featureParams>
  <stageNum>5</stageNum>
  <stages>
    <!-- stage 0 -->
    <_>
      <maxWeakCount>6</maxWeakCount>
      <stageThreshold>-9.2092299461364746e-01</stageThreshold>
      <weakClassifiers>
        <_>
          <internalNodes>
            0 -1 9 -1.9410359859466553e-01</internalNodes>
          <leafValues>
            5.9635418653488159e-01 -7.3076921701431274e-01</leafValues></_>
        <_>
          <internalNodes>
            0 -1 2 1.5980836469680071e-03</internalNodes>
          <leafValues>
            1.3030585646629333e-01 -9.2139315605163574e-01</leafValues></_>
        <_>
          <internalNodes>
            0 -1 3 -1.9182562828063965e-03</internalNodes>
          <leafValues>
            -7.9642355442047119e-01 2.4726386368274689e-01</leafValues></_>
        <_>
          <internalNodes>
            0 -1 7 7.2620628634467721e-04</internalNodes>
          <leafValues>
            1.7208461463451385e-01 -9.1736948490142822e-01</leafValues></_>
        <_>
          <internalNodes>
            0 -1 7 -6.9228606298565865e-04</internalNodes>
          <leafValues>
            -8.9321935176849365e-01 2.6357966661453247e-01</leafValues></_>
        <_>
          <internalNodes>
            0 -1 30 1.4246755745261908e-03</internalNodes>
          <leafValues>
            1.5341125428676605e-01 -8.9618510007858276e-01</leafValues></_></weakClassifiers></_>
    <!-- stage 1 -->
    <_>
      <maxWeakCount>6</maxWeakCount>
      <stageThreshold>-8.1824910640716553e-01</stageThreshold>
      <weakClassifiers>
        <_>
          <internalNodes>
            0 -1 4 -4.1375643014907837e-01</internalNodes>
          <leafValues>
            6.1354583501815796e-01 -5.8715593814849854e-01</leafValues></_>
        <_>
          <internalNodes>
            0 -1 30 -1.4653615653514862e-03</internalNodes>
          <leafValues>
            -9.2745137214660645e-01 2.3599509894847870e-01</leafValues></_>
        <_>
          <internalNodes>
            0 -1 0 6.6970521584153175e-04</internalNodes>
          <leafValues>
            1.2673902511596680e-01 -8.9662653207778931e-01</leafValues></_>
        <_>
          <internalNodes>
            0 -1 26 -8.0641300883144140e-04</internalNodes>
          <leafValues>
            -9.1856884956359863e-01 1.5509717166423798e-01</leafValues></_>
        <_>
          <internalNodes>
            0 -1 19 -1.8552367109805346e-03</internalNodes>
          <leafValues>
            -8.5593050718307495e-01 1.7708194255828857e-01</leafValues></_>
        <_>
          <internalNodes>
            0 -1 20 1.7759962938725948e-03</internalNodes>
          <leafValues>
            2.3744006454944611e-01 -8.0232357978820801e-01</leafValues></_></weakClassifiers></_>
    <!-- stage 2 -->
    <_>
      <maxWeakCount>6</maxWeakCount>
      <stageThreshold>-9.8622471094131470e-01</stageThreshold>
      <weakClassifiers>
        <_>
          <internalNodes>
            0 -1 6 -1.4064522087574005e-01</internalNodes>
          <leafValues>
            4.2606517672538757e-01 -6.8506187200546265e-01</leafValues></_>
        <_>
          <internalNodes>
            0 -1 25 7.7864079503342509e-04</internalNodes>
          <leafValues>
            1.3072460889816284e-01 -7.9517865180969238e-01</leafValues></_>
        <_>
          <internalNodes>
            0 -1 5 9.4870559405535460e-04</internalNodes>
          <leafValues>
            1.3748715817928314e-01 -9.2702221870422363e-01</leafValues></_>
        <_>
          <internalNodes>
            0 -1 1 1.6058537876233459e-03</internalNodes>
          <leafValues>
            1.6692054271697998e-01 -7.9700613021850586e-01</leafValues></_>
        <_>
          <internalNodes>
            0 -1 27 -2.6544597931206226e-03</internalNodes>
          <leafValues>
            -8.7994658946990967e-01 1.5524876117706299e-01</leafValues></_>
        <_>
          <internalNodes>
            0 -1 32 1.1702100746333599e-03</internalNodes>
          <leafValues>
            1.8068060278892517e-01 -8.9154392480850220e-01</leafValues></_></weakClassifiers></_>
    <!-- stage 3 -->
    <_>
      <maxWeakCount>9</maxWeakCount>
      <stageThreshold>-1.5426200628280640e+00</stageThreshold>
      <weakClassifiers>
        <_>
          <internalNodes>
            0 -1 10 -2.4271324276924133e-01</internalNodes>
          <leafValues>
            5.3581660985946655e-01 -6.6939145326614380e-01</leafValues></_>
        <_>
          <internalNodes>
            0 -1 15 5.0403773784637451e-03</internalNodes>
          <leafValues>
            -4.6904432773590088e-01 4.4151136279106140e-01</leafValues></_>
        <_>
          <internalNodes>
            0 -1 22 2.1116232965141535e-03</internalNodes>
          <leafValues>
            -3.8238477706909180e-01 3.9293813705444336e-01</leafValues></_>
        <_>
          <internalNodes>
            0 -1 18 1.8508045468479395e-03</internalNodes>
          <leafValues>
            -3.1147533655166626e-01 4.4452840089797974e-01</leafValues></_>
        <_>
          <internalNodes>
            0 -1 21 -8.5610558744519949e-04</internalNodes>
          <leafValues>
            -8.0750757455825806e-01 1.6970220208168030e-01</leafValues></_>
        <_>
          <internalNodes>
            0 -1 14 -1.7783649964258075e-03</internalNodes>
          <leafValues>
            4.3870824575424194e-01 -3.4728470444679260e-01</leafValues></_>
        <_>
          <internalNodes>
            0 -1 17 3.1778854317963123e-03</internalNodes>
          <leafValues>
            1.6029375791549683e-01 -8.1907671689987183e-01</leafValues></_>
        <_>
          <internalNodes>
            0 -1 8 -1.9358007702976465e-03</internalNodes>
          <leafValues>
            -9.6784198284149170e-01 1.1089377850294113e-01</leafValues></_>
        <_>
          <internalNodes>
            0 -1 16 -5.0856471061706543e-03</internalNodes>
          <leafValues>
            4.5798322558403015e-01 -2.8650927543640137e-01</leafValues></_></weakClassifiers></_>
    <!-- stage 4 -->
    <_>
      <maxWeakCount>8</maxWeakCount>
      <stageThreshold>-1.4463952779769897e+00</stageThreshold>
      <weakClassifiers>
        <_>
          <internalNodes>
            0 -1 11 -3.4910596907138824e-02</internalNodes>
          <leafValues>
            3.3618232607841492e-01 -6.0782527923583984e-01</leafValues></_>
        <_>
          <internalNodes>
            0 -1 23 1.3744736090302467e-02</internalNodes>
          <leafValues>
            -4.0446656942367554e-01 3.9630880951881409e-01</leafValues></_>
        <_>
          <internalNodes>
            0 -1 29 -1.4526395825669169e-03</internalNodes>
          <leafValues>
            -9.0874356031417847e-01 1.6572383046150208e-01</leafValues></_>
        <_>
          <internalNodes>
            0 -1 12 1.0472289286553860e-03</internalNodes>
          <leafValues>
            1.8302406370639801e-01 -9.0298932790756226e-01</leafValues></_>
        <_>
          <internalNodes>
            0 -1 24 -1.7945136874914169e-02</internalNodes>
          <leafValues>
            7.1852827072143555e-01 -2.3356363177299500e-01</leafValues></_>
        <_>
          <internalNodes>
            0 -1 31 2.4061708245426416e-03</internalNodes>
          <leafValues>
            1.7258755862712860e-01 -8.7957912683486938e-01</leafValues></_>
        <_>
          <internalNodes>
            0 -1 28 5.8830482885241508e-03</internalNodes>
          <leafValues>
            1.3854275643825531e-01 -7.8378134965896606e-01</leafValues></_>
        <_>
          <internalNodes>
            0 -1 13 -4.2413530172780156e-04</internalNodes>
          <leafValues>
            -8.6041802167892456e-01 1.2788088619709015e-01</leafValues></_></weakClassifiers></_></stages>
  <features>
    <_>
      <rects>
        <_>
          0 0 2 10 -1.</_>
        <_>
          0 0 1 5 2.</_>
        <_>
          1 5 1 5 2.</_></rects>
      <tilted>0</tilted></_>
    <_>
      <rects>
        <_>
          0 0 2 9 -1.</_>
        <_>
          0 3 2 3 3.</_></rects>
      <tilted>0</tilted></_>
    <_>
      <rects>
        <_>
          0 1 1 12 -1.</_>
        <_>
          0 5 1 4 3.</_></rects>
      <tilted>0</tilted></_>
    <_>
      <rects>
        <_>
          0 1 2 12 -1.</_>
        <_>
          0 5 2 4 3.</_></rects>
      <tilted>0</tilted></_>
    <_>
      <rects>
        <_>
          0 2 33 28 -1.</_>
        <_>
          11 2 11 28 3.</_></rects>
      <tilted>0</tilted></_>
    <_>
      <rects>
        <_>
          0 3 1 6 -1.</_>
        <_>
          0 6 1 3 2.</_></rects>
      <tilted>0</tilted></_>
    <_>
      <rects>
        <_>
          0 4 33 12 -1.</_>
        <_>
          11 4 11 12 3.</_></rects>
      <tilted>0</tilted></_>
    <_>
      <rects>
        <_>
          0 28 1 6 -1.</_>
        <_>
          0 30 1 2 3.</_></rects>
      <tilted>0</tilted></_>
    <_>
      <rects>
        <_>
          0 33 12 1 -1.</_>
        <_>
          4 33 4 1 3.</_></rects>
      <tilted>0</tilted></_>
    <_>
      <rects>
        <_>
          1 5 33 25 -1.</_>
        <_>
          12 5 11 25 3.</_></rects>
      <tilted>0</tilted></_>
    <_>
      <rects>
        <_>
          2 3 30 29 -1.</_>
        <_>
          12 3 10 29 3.</_></rects>
      <tilted>0</tilted></_>
    <_>
      <rects>
        <_>
          2 14 10 14 -1.</_>
        <_>
          7 14 5 14 2.</_></rects>
      <tilted>0</tilted></_>
    <_>
      <rects>
        <_>
          2 33 9 1 -1.</_>
        <_>
          5 33 3 1 3.</_></rects>
      <tilted>0</tilted></_>
    <_>
      <rects>
        <_>
          3 33 4 1 -1.</_>
        <_>
          5 33 2 1 2.</_></rects>
      <tilted>0</tilted></_>
    <_>
      <rects>
        <_>
          7 11 6 3 -1.</_>
        <_>
          10 11 3 3 2.</_></rects>
      <tilted>0</tilted></_>
    <_>
      <rects>
        <_>
          7 28 21 6 -1.</_>
        <_>
          7 31 21 3 2.</_></rects>
      <tilted>0</tilted></_>
    <_>
      <rects>
        <_>
          8 1 11 4 -1.</_>
        <_>
          8 3 11 2 2.</_></rects>
      <tilted>0</tilted></_>
    <_>
      <rects>
        <_>
          10 33 24 1 -1.</_>
        <_>
          18 33 8 1 3.</_></rects>
      <tilted>0</tilted></_>
    <_>
      <rects>
        <_>
          16 10 2 14 -1.</_>
        <_>
          16 17 2 7 2.</_></rects>
      <tilted>0</tilted></_>
    <_>
      <rects>
        <_>
          16 33 18 1 -1.</_>
        <_>
          22 33 6 1 3.</_></rects>
      <tilted>0</tilted></_>
    <_>
      <rects>
        <_>
          18 33 15 1 -1.</_>
        <_>
          23 33 5 1 3.</_></rects>
      <tilted>0</tilted></_>
    <_>
      <rects>
        <_>
          20 33 9 1 -1.</_>
        <_>
          23 33 3 1 3.</_></rects>
      <tilted>0</tilted></_>
    <_>
      <rects>
        <_>
          21 14 8 4 -1.</_>
        <_>
          25 14 4 4 2.</_></rects>
      <tilted>0</tilted></_>
    <_>
      <rects>
        <_>
          23 6 6 24 -1.</_>
        <_>
          26 6 3 24 2.</_></rects>
      <tilted>0</tilted></_>
    <_>
      <rects>
        <_>
          25 11 9 10 -1.</_>
        <_>
          28 11 3 10 3.</_></rects>
      <tilted>0</tilted></_>
    <_>
      <rects>
        <_>
          28 0 6 2 -1.</_>
        <_>
          30 0 2 2 3.</_></rects>
      <tilted>0</tilted></_>
    <_>
      <rects>
        <_>
          30 0 4 4 -1.</_>
        <_>
          30 0 2 2 2.</_>
        <_>
          32 2 2 2 2.</_></rects>
      <tilted>0</tilted></_>
    <_>
      <rects>
        <_>
          31 25 3 9 -1.</_>
        <_>
          31 28 3 3 3.</_></rects>
      <tilted>0</tilted></_>
    <_>
      <rects>
        <_>
          32 1 2 18 -1.</_>
        <_>
          32 7 2 6 3.</_></rects>
      <tilted>0</tilted></_>
    <_>
      <rects>
        <_>
          32 2 1 12 -1.</_>
        <_>
          32 6 1 4 3.</_></rects>
      <tilted>0</tilted></_>
    <_>
      <rects>
        <_>
          33 0 1 12 -1.</_>
        <_>
          33 4 1 4 3.</_></rects>
      <tilted>0</tilted></_>
    <_>
      <rects>
        <_>
          33 11 1 15 -1.</_>
        <_>
          33 16 1 5 3.</_></rects>
      <tilted>0</tilted></_>
    <_>
      <rects>
        <_>
          33 25 1 9 -1.</_>
        <_>
          33 28 1 3 3.</_></rects>
      <tilted>0</tilted></_></features></cascade>
</opencv_storage>
