<?xml version="1.0"?>
<opencv_storage>
<cascade>
  <stageType>BOOST</stageType>
  <featureType>HAAR</featureType>
  <height>34</height>
  <width>34</width>
  <stageParams>
    <boostType>GAB</boostType>
    <minHitRate>9.9500000476837158e-01</minHitRate>
    <maxFalseAlarm>5.0000000000000000e-01</maxFalseAlarm>
    <weightTrimRate>9.4999998807907104e-01</weightTrimRate>
    <maxDepth>1</maxDepth>
    <maxWeakCount>100</maxWeakCount></stageParams>
  <featureParams>
    <maxCatCount>0</maxCatCount>
    <featSize>1</featSize>
    <mode>BASIC</mode></featureParams>
  <stageNum>3</stageNum>
  <stages>
    <!-- stage 0 -->
    <_>
      <maxWeakCount>3</maxWeakCount>
      <stageThreshold>-9.1304814815521240e-01</stageThreshold>
      <weakClassifiers>
        <_>
          <internalNodes>
            0 -1 2 -1.1691540479660034e-01</internalNodes>
          <leafValues>
            6.4763778448104858e-01 -9.3312102556228638e-01</leafValues></_>
        <_>
          <internalNodes>
            0 -1 12 6.0861807316541672e-02</internalNodes>
          <leafValues>
            -7.8495407104492188e-01 7.3243468999862671e-01</leafValues></_>
        <_>
          <internalNodes>
            0 -1 4 -8.0539643764495850e-02</internalNodes>
          <leafValues>
            8.0502694845199585e-01 -7.0608741044998169e-01</leafValues></_></weakClassifiers></_>
    <!-- stage 1 -->
    <_>
      <maxWeakCount>7</maxWeakCount>
      <stageThreshold>-1.6571531295776367e+00</stageThreshold>
      <weakClassifiers>
        <_>
          <internalNodes>
            0 -1 7 4.2004570364952087e-02</internalNodes>
          <leafValues>
            -7.2692674398422241e-01 5.3634083271026611e-01</leafValues></_>
        <_>
          <internalNodes>
            0 -1 8 -3.6795701831579208e-02</internalNodes>
          <leafValues>
            5.9192353487014771e-01 -5.9648197889328003e-01</leafValues></_>
        <_>
          <internalNodes>
            0 -1 0 -1.5758660435676575e-01</internalNodes>
          <leafValues>
            6.0993599891662598e-01 -5.2742719650268555e-01</leafValues></_>
        <_>
          <internalNodes>
            0 -1 11 1.0453907400369644e-01</internalNodes>
          <leafValues>
            -5.4780715703964233e-01 5.8227610588073730e-01</leafValues></_>
        <_>
          <internalNodes>
            0 -1 13 -2.7834749780595303e-03</internalNodes>
          <leafValues>
            -9.2429524660110474e-01 2.6263535022735596e-01</leafValues></_>
        <_>
          <internalNodes>
            0 -1 14 8.2101882435381413e-04</internalNodes>
          <leafValues>
            2.8114014863967896e-01 -8.2272714376449585e-01</leafValues></_>
        <_>
          <internalNodes>
            0 -1 6 5.7007027789950371e-03</internalNodes>
          <leafValues>
            1.9771443307399750e-01 -9.4430673122406006e-01</leafValues></_></weakClassifiers></_>
    <!-- stage 2 -->
    <_>
      <maxWeakCount>5</maxWeakCount>
      <stageThreshold>-1.9837872982025146e+00</stageThreshold>
      <weakClassifiers>
        <_>
          <internalNodes>
            0 -1 3 -3.5091462731361389e-01</internalNodes>
          <leafValues>
            4.3355119228363037e-01 -7.5580221414566040e-01</leafValues></_>
        <_>
          <internalNodes>
            0 -1 5 3.5668216645717621e-02</internalNodes>
          <leafValues>
            -6.4874118566513062e-01 4.8661324381828308e-01</leafValues></_>
        <_>
          <internalNodes>
            0 -1 9 -6.6642872989177704e-03</internalNodes>
          <leafValues>
            3.8014361262321472e-01 -6.3102322816848755e-01</leafValues></_>
        <_>
          <internalNodes>
            0 -1 10 -5.3474336862564087e-02</internalNodes>
          <leafValues>
            5.4847049713134766e-01 -4.6330055594444275e-01</leafValues></_>
        <_>
          <internalNodes>
            0 -1 1 -5.1562443375587463e-02</internalNodes>
          <leafValues>
            4.8764446377754211e-01 -6.2027454376220703e-01</leafValues></_></weakClassifiers></_></stages>
  <features>
    <_>
      <rects>
        <_>
          0 2 16 31 -1.</_>
        <_>
          8 2 8 31 2.</_></rects>
      <tilted>0</tilted></_>
    <_>
      <rects>
        <_>
          0 10 12 22 -1.</_>
        <_>
          6 10 6 22 2.</_></rects>
      <tilted>0</tilted></_>
    <_>
      <rects>
        <_>
          1 1 33 13 -1.</_>
        <_>
          12 1 11 13 3.</_></rects>
      <tilted>0</tilted></_>
    <_>
      <rects>
        <_>
          1 3 33 29 -1.</_>
        <_>
          12 3 11 29 3.</_></rects>
      <tilted>0</tilted></_>
    <_>
      <rects>
        <_>
          1 7 12 24 -1.</_>
        <_>
          7 7 6 24 2.</_></rects>
      <tilted>0</tilted></_>
    <_>
      <rects>
        <_>
          3 26 28 8 -1.</_>
        <_>
          3 30 28 4 2.</_></rects>
      <tilted>0</tilted></_>
    <_>
      <rects>
        <_>
          4 0 30 2 -1.</_>
        <_>
          14 0 10 2 3.</_></rects>
      <tilted>0</tilted></_>
    <_>
      <rects>
        <_>
          6 26 19 8 -1.</_>
        <_>
          6 30 19 4 2.</_></rects>
      <tilted>0</tilted></_>
    <_>
      <rects>
        <_>
          10 0 13 10 -1.</_>
        <_>
          10 5 13 5 2.</_></rects>
      <tilted>0</tilted></_>
    <_>
      <rects>
        <_>
          14 0 9 6 -1.</_>
        <_>
          14 3 9 3 2.</_></rects>
      <tilted>0</tilted></_>
    <_>
      <rects>
        <_>
          15 14 18 12 -1.</_>
        <_>
          21 14 6 12 3.</_></rects>
      <tilted>0</tilted></_>
    <_>
      <rects>
        <_>
          20 8 14 23 -1.</_>
        <_>
          27 8 7 23 2.</_></rects>
      <tilted>0</tilted></_>
    <_>
      <rects>
        <_>
          22 9 12 20 -1.</_>
        <_>
          28 9 6 20 2.</_></rects>
      <tilted>0</tilted></_>
    <_>
      <rects>
        <_>
          29 1 3 12 -1.</_>
        <_>
          29 5 3 4 3.</_></rects>
      <tilted>0</tilted></_>
    <_>
      <rects>
        <_>
          30 2 1 9 -1.</_>
        <_>
          30 5 1 3 3.</_></rects>
      <tilted>0</tilted></_></features></cascade>
</opencv_storage>
